<?xml version="1.0"?>
<opencv_storage>
<my_svm type_id="opencv-ml-svm">
  <svm_type>C_SVC</svm_type>
  <kernel><type>LINEAR</type></kernel>
  <C>1.</C>
  <term_criteria><epsilon>2.2204460492503131e-16</epsilon>
    <iterations>100</iterations></term_criteria>
  <var_all>100</var_all>
  <var_count>100</var_count>
  <class_count>2</class_count>
  <class_labels type_id="opencv-matrix">
    <rows>1</rows>
    <cols>2</cols>
    <dt>i</dt>
    <data>
      -1 1</data></class_labels>
  <sv_total>1</sv_total>
  <support_vectors>
    <_>
      3.54277492e-02 4.12793718e-02 4.86435518e-02 1.17557142e-02
      8.41627549e-03 9.20086913e-03 9.52338614e-03 -3.74453180e-02
      3.63427550e-02 -2.03960008e-04 3.04695442e-02 9.93068889e-03
      -5.74997347e-03 -3.69854979e-02 -1.27173187e-02 -7.34816352e-03
      3.67204635e-03 2.46504899e-02 -4.18902561e-02 1.47267692e-02
      7.03693088e-03 1.49433715e-02 1.24608241e-02 1.06444275e-02
      -1.86764281e-02 -2.35271547e-03 4.04235488e-03 1.22343339e-02
      -7.06896419e-04 1.90124232e-02 1.03435200e-02 3.48081850e-02
      -2.79880576e-02 2.06916034e-03 1.61967576e-02 -1.36612933e-02
      -2.87375599e-02 1.06032123e-03 -1.43803365e-03 2.46388987e-02
      -3.65686268e-02 1.67952180e-02 5.34091191e-03 1.41834805e-03
      2.24239822e-03 -1.55341579e-02 -2.10969560e-02 -2.37266384e-02
      -6.31235633e-03 3.01216599e-02 -8.82079080e-03 3.79261700e-03
      -6.69213012e-03 -2.15341188e-02 -3.60512757e-03 2.69547533e-02
      3.66021623e-03 -1.57624912e-02 8.23604967e-03 3.52111161e-02
      -1.01340124e-02 1.83778293e-02 -1.74775831e-02 1.65283470e-03
      3.83507786e-03 1.31444458e-03 -1.05804279e-02 -2.40276624e-02
      4.13777214e-03 6.47848286e-03 4.64683212e-02 -4.61904751e-03
      1.15671642e-02 3.22100264e-03 -1.67695712e-02 5.10781957e-03
      -8.81964155e-03 1.18692731e-02 9.32072755e-03 8.63649510e-03
      3.53506580e-02 6.00710232e-03 -7.74189644e-03 2.97247461e-05
      -5.48261823e-03 6.92750840e-03 4.22773371e-03 -1.50819458e-02
      -3.53478342e-02 -6.98000938e-02 3.66713628e-02 -2.03088038e-02
      -2.67823115e-02 2.44980995e-02 -2.03682599e-03 -1.91460382e-02
      5.75467013e-03 4.26288433e-02 6.80349097e-02 1.08086504e-02</_></support_vectors>
  <decision_functions>
    <_>
      <sv_count>1</sv_count>
      <rho>-2.5634484865656504e-01</rho>
      <alpha>
        1.</alpha>
      <index>
        0</index></_></decision_functions></my_svm>
</opencv_storage>
